digraph Tree {
node [shape=box] ;
0 [label="X[20] <= 16.795\ngini = 0.4679\nsamples = 426\nvalue = [159, 267]\nclass = ben"] ;
1 [label="X[27] <= 0.1359\ngini = 0.1606\nsamples = 284\nvalue = [25, 259]\nclass = ben"] ;
0 -> 1 [labeldistance=2.5, labelangle=45, headlabel="True"] ;
2 [label="X[10] <= 1.0475\ngini = 0.0312\nsamples = 252\nvalue = [4, 248]\nclass = ben"] ;
1 -> 2 ;
3 [label="X[14] <= 0.0033\ngini = 0.0236\nsamples = 251\nvalue = [3, 248]\nclass = ben"] ;
2 -> 3 ;
4 [label="gini = 0.375\nsamples = 4\nvalue = [1, 3]\nclass = ben"] ;
3 -> 4 ;
5 [label="gini = 0.0161\nsamples = 247\nvalue = [2, 245]\nclass = ben"] ;
3 -> 5 ;
6 [label="gini = 0.0\nsamples = 1\nvalue = [1, 0]\nclass = mal"] ;
2 -> 6 ;
7 [label="X[21] <= 25.62\ngini = 0.4512\nsamples = 32\nvalue = [21, 11]\nclass = mal"] ;
1 -> 7 ;
8 [label="X[24] <= 0.1786\ngini = 0.375\nsamples = 12\nvalue = [3, 9]\nclass = ben"] ;
7 -> 8 ;
9 [label="gini = 0.18\nsamples = 10\nvalue = [1, 9]\nclass = ben"] ;
8 -> 9 ;
10 [label="gini = 0.0\nsamples = 2\nvalue = [2, 0]\nclass = mal"] ;
8 -> 10 ;
11 [label="X[28] <= 0.2682\ngini = 0.18\nsamples = 20\nvalue = [18, 2]\nclass = mal"] ;
7 -> 11 ;
12 [label="gini = 0.4444\nsamples = 3\nvalue = [1, 2]\nclass = ben"] ;
11 -> 12 ;
13 [label="gini = 0.0\nsamples = 17\nvalue = [17, 0]\nclass = mal"] ;
11 -> 13 ;
14 [label="X[11] <= 0.4732\ngini = 0.1063\nsamples = 142\nvalue = [134, 8]\nclass = mal"] ;
0 -> 14 [labeldistance=2.5, labelangle=-45, headlabel="False"] ;
15 [label="gini = 0.0\nsamples = 5\nvalue = [0, 5]\nclass = ben"] ;
14 -> 15 ;
16 [label="X[26] <= 0.1907\ngini = 0.0428\nsamples = 137\nvalue = [134, 3]\nclass = mal"] ;
14 -> 16 ;
17 [label="X[21] <= 30.975\ngini = 0.48\nsamples = 5\nvalue = [2, 3]\nclass = ben"] ;
16 -> 17 ;
18 [label="gini = 0.0\nsamples = 3\nvalue = [0, 3]\nclass = ben"] ;
17 -> 18 ;
19 [label="gini = 0.0\nsamples = 2\nvalue = [2, 0]\nclass = mal"] ;
17 -> 19 ;
20 [label="gini = 0.0\nsamples = 132\nvalue = [132, 0]\nclass = mal"] ;
16 -> 20 ;
}